

--- BEGIN NN EXPORT ---
{"hidden_layer":{"bias":[-nan,7442254336.000000,0.000000,0.000000,0.000000,3686597.000000,3907511794823157481810446778368.000000,0.000000,-3.994825,-24735800499752788890969178112.000000,0.000000,0.000000,-5119806464.000000,-32747212885093449215946727917665386496.000000,nan,1.576353],"weights":[[-nan,-nan,-nan,-nan,-nan,-nan,-nan,-nan,-nan,-nan,-nan,-nan,-nan,-nan,-nan,-nan,-nan,-nan,-nan,-nan,-nan,-nan,-nan,-nan],[0.069722,0.056416,0.099161,0.000000,0.000000,-0.000000,-0.011460,-0.009622,-0.016284,-0.000000,0.000000,0.000000,-0.030138,-0.025236,-0.042833,0.000000,0.000000,0.000000,0.008447,0.007280,0.012013,0.000000,0.000000,-0.000000],[-0.076385,-0.061308,-0.108659,-0.000000,0.000000,-0.000000,0.083603,0.066426,0.118954,0.000000,0.000000,0.000000,-0.039790,-0.033246,-0.056566,0.000000,-0.000000,-0.000000,0.051488,0.042543,0.073202,0.000000,0.000000,0.000000],[0.070157,0.056789,0.099784,0.000000,-0.000000,-0.000000,-0.041902,-0.034996,-0.059571,0.000000,0.000000,-0.000000,0.009405,0.007989,0.013368,0.000000,-0.000000,-0.000000,0.044647,0.037208,0.063477,0.000000,-0.000000,0.000000],[0.039033,0.025950,0.098304,-0.034260,0.077279,-0.012648,-0.033280,0.009311,-0.084741,0.092849,-0.043959,0.056946,0.077763,-0.046297,0.010374,0.049341,0.035823,0.023805,0.090606,-0.031437,0.071092,-0.011601,-0.030538,0.008536],[-0.078005,0.085532,-0.040352,0.052311,0.071539,-0.042502,0.009513,0.045304,6375001134848223383035838464.000000,-0.051016,31.305399,-0.000000,0.000000,0.000000,-0.000000,-50788192052563151997871587328.000000,-0.000000,-0.404129,3967.464111,-0.000000,-0.000000,-0.000000,-0.000000,0.000345],[-nan,-nan,-nan,-nan,-nan,-nan,-nan,-nan,-nan,-nan,-nan,-nan,-nan,-nan,-nan,-nan,-nan,-nan,-nan,-nan,-nan,-nan,-nan,-nan],[-1.020011,-115381.585938,2598353507486510819309151679835799552.000000,-1457.421509,0.000000,0.005225,0.000000,-154728394328505992410663357513728.000000,-0.000000,0.000000,0.000000,-0.001154,-0.000000,0.000000,-0.002656,-96587972608.000000,55576142761146890844295397376.000000,-15688193644433506304.000000,-0.000000,0.000000,70097059840.000000,0.000587,-105334123266048.000000,-0.000000],[-67733584993330048553451520.000000,-0.000000,-0.000000,0.000000,-574086530551461064508281242779648.000000,0.000000,-0.010310,2140849257255138751982751186944.000000,-4695342759560889600439205494784.000000,-1.881904,-1536873.375000,0.000000,10.119709,-0.000000,0.417248,-60470996238336.000000,-31040749797981974839803038538924032.000000,-81746.460938,-0.000000,0.000000,0.000000,0.000000,-120211234816.000000,26836143828506306644438679552.000000],[-0.000000,-113937989563262561758768682500096.000000,200601649152.000000,0.000000,-0.000000,0.000000,2172083571404046336.000000,-4847891417115300910321223327547392.000000,152006318924622351858694545735680.000000,-1563702177457744162660796071936.000000,-0.000001,851.051147,0.000000,0.000000,-0.000000,-578243953305103687555030712320.000000,0.000000,-32649586569459531776.000000,108511458804121640894464.000000,-0.000000,4429530818778845931799339195170816.000000,0.000000,-7037176.000000,-9146520477630464.000000],[13367715384276056318751161712640.000000,0.001647,0.001770,0.000000,-0.000002,0.000000,-0.000000,-17373738372744347648.000000,0.000000,-0.000000,-0.000000,0.000000,-111748078978895286850551808.000000,-1490814.875000,28397321322496.000000,-1192942562841728872891546124494569472.000000,-271503147554250516678942476524847104.000000,-390.582489,0.000000,13585685862615311450112.000000,-226614272296726036480.000000,2.461061,-0.000000,-1247884203647033134703502705838522368.000000],[-0.000000,218164816.000000,-10682272603744801652736.000000,0.000000,125717792460148451286232259023077376.000000,-0.000000,-3230700090699579211889896828436480.000000,-37935470831635781582884003905536.000000,-760572454572209417157725782292824064.000000,-119108.820312,3.307094,-0.000000,140408442320846848.000000,-0.000000,99171376547151813822168841584640.000000,-8600492935393623750475776.000000,484378852500439040000.000000,-7066469415862042532249163792384.000000,-8420875619253627125760.000000,0.000000,-0.000000,0.000000,0.028067,7769605465453561271812096.000000],[-0.000000,-0.000001,0.000000,0.000000,-0.000000,0.000000,-0.000000,-1659042365323842549384841191751680.000000,-0.000000,-20157715972096.000000,-0.000000,211.230347,2783048484290269085366998794240.000000,0.000000,-0.000021,-5808066133538453323776.000000,0.000000,-27752129449272324552426258432.000000,10097983488.000000,181134740984044330156032.000000,3057719288266752.000000,0.000000,-0.000000,-14983817706986505303642453399618715648.000000],[-25952118197048049664.000000,-31503803745556749902389605753159680.000000,0.000000,-0.000000,1959.067383,-0.000000,-0.000000,0.000000,17609272725871849675599720218624.000000,-0.000000,2568450718235434680320.000000,140219367424.000000,2226.724365,-0.000000,-0.000000,150345612534534012352926058302486347776.000000,-43299817652224.000000,-0.205723,-0.000000,0.000000,-0.000000,-0.000000,-9396096738790220179483629616889856.000000,-153946974930866806148613753194676224.000000],[nan,nan,nan,nan,nan,nan,nan,nan,nan,nan,nan,nan,nan,nan,nan,nan,nan,nan,nan,nan,nan,nan,nan,nan],[8157593600000.000000,0.020242,227218682084851712.000000,0.000000,13.082369,33853135650816.000000,-0.000000,37058854912.000000,-0.001104,-121352637618262543342178361535365120.000000,0.000096,131804.750000,179413280.000000,0.000000,1.072207,-0.099650,-139005605840561036998656131072.000000,-32001227446778498227273465856.000000,-27563.755859,-0.000000,204503.515625,-0.000000,0.000000,-0.000000]]},"output_layer":{"bias":[0.026826,0.045280,-0.080193,0.084043,-0.093663,0.085130],"weights":[[-nan,nan,nan,nan,nan,nan,-nan,nan,nan,nan,nan,nan,nan,nan,nan,nan],[-nan,nan,nan,nan,nan,nan,-nan,nan,nan,nan,nan,nan,nan,nan,nan,nan],[-nan,nan,nan,nan,nan,nan,-nan,nan,nan,nan,nan,nan,nan,nan,nan,nan],[-nan,nan,nan,nan,nan,nan,-nan,nan,nan,nan,nan,nan,nan,nan,nan,nan],[-nan,nan,nan,nan,nan,nan,-nan,nan,nan,nan,nan,nan,nan,nan,nan,nan],[-nan,nan,nan,nan,nan,nan,-nan,nan,nan,nan,nan,nan,nan,nan,nan,nan]]},"prediction_layer":{"bias":[-126191889402277712979361267712.000000,25632234332185562692458661172740096.000000,33281599047244709888.000000,-9516361230255646847287689216.000000,0.000000,-6083527467740430336.000000,0.135352,0.000000,0.000009,-0.000000,70358890301679313354752.000000,-0.000000,-0.004402,0.000000,0.000000,-19011450.000000,-8425198316109266067894232525307904.000000,-384356580880741101985595392.000000,-0.099021,-0.000000,893930870669312.000000,-0.000000,-0.000000,1.576603],"weights":[[-nan,nan,nan,nan,nan,nan,-nan,nan,nan,nan,nan,nan,nan,nan,nan,nan],[-nan,nan,nan,nan,nan,nan,-nan,nan,nan,nan,nan,nan,nan,nan,nan,nan],[-nan,nan,nan,nan,nan,nan,-nan,nan,nan,nan,nan,nan,nan,nan,nan,nan],[-nan,nan,nan,nan,nan,nan,-nan,nan,nan,nan,nan,nan,nan,nan,nan,nan],[-nan,nan,nan,nan,nan,nan,-nan,nan,nan,nan,nan,nan,nan,nan,nan,nan],[-nan,nan,nan,nan,nan,nan,-nan,nan,nan,nan,nan,nan,nan,nan,nan,nan],[-nan,nan,nan,nan,nan,nan,-nan,nan,nan,nan,nan,nan,nan,nan,nan,nan],[-nan,nan,nan,nan,nan,nan,-nan,nan,nan,nan,nan,nan,nan,nan,nan,nan],[-nan,nan,nan,nan,nan,nan,-nan,nan,nan,nan,nan,nan,nan,nan,nan,nan],[-nan,nan,nan,nan,nan,nan,-nan,nan,nan,nan,nan,nan,nan,nan,nan,nan],[-nan,nan,nan,nan,nan,nan,-nan,nan,nan,nan,nan,nan,nan,nan,nan,nan],[-nan,nan,nan,nan,nan,nan,-nan,nan,nan,nan,nan,nan,nan,nan,nan,nan],[-nan,nan,nan,nan,nan,nan,-nan,nan,nan,nan,nan,nan,nan,nan,nan,nan],[-nan,nan,nan,nan,nan,nan,-nan,nan,nan,nan,nan,nan,nan,nan,nan,nan],[-nan,nan,nan,nan,nan,nan,-nan,nan,nan,nan,nan,nan,nan,nan,nan,nan],[-nan,nan,nan,nan,nan,nan,-nan,nan,nan,nan,nan,nan,nan,nan,nan,nan],[-nan,nan,nan,nan,nan,nan,-nan,nan,nan,nan,nan,nan,nan,nan,nan,nan],[-nan,nan,nan,nan,nan,nan,-nan,nan,nan,nan,nan,nan,nan,nan,nan,nan],[-nan,nan,nan,nan,nan,nan,-nan,nan,nan,nan,nan,nan,nan,nan,nan,nan],[-nan,nan,nan,nan,nan,nan,-nan,nan,nan,nan,nan,nan,nan,nan,nan,nan],[-nan,nan,nan,nan,nan,nan,-nan,nan,nan,nan,nan,nan,nan,nan,nan,nan],[-nan,nan,nan,nan,nan,nan,-nan,nan,nan,nan,nan,nan,nan,nan,nan,nan],[-nan,nan,nan,nan,nan,nan,-nan,nan,nan,nan,nan,nan,nan,nan,nan,nan],[-nan,nan,nan,nan,nan,nan,-nan,nan,nan,nan,nan,nan,nan,nan,nan,nan]]}}
--- END NN EXPORT ---

