

--- BEGIN NN EXPORT ---
{"hidden_layer":{"bias":[-nan,7442254336.000000,0.000000,0.000000,0.000000,3686597.000000,3907511794823157481810446778368.000000,0.000000,-3.994825,-24735800499752788890969178112.000000,0.000000,0.000000,-5119806464.000000,-32747212885093449215946727917665386496.000000,nan,1.576353],"weights":[[-nan,-nan,-nan,-nan,-nan,-nan,-nan,-nan,-nan,-nan,-nan,-nan,-nan,-nan,-nan,-nan,-nan,-nan,-nan,-nan,-nan,-nan,-nan,-nan],[0.069722,0.056416,0.099161,0.000000,0.000000,-0.000000,-0.011460,-0.009622,-0.016284,-0.000000,0.000000,0.000000,-0.030138,-0.025236,-0.042833,0.000000,0.000000,0.000000,0.008447,0.007280,0.012013,0.000000,0.000000,-0.000000],[-0.076385,-0.061308,-0.108659,-0.000000,0.000000,-0.000000,0.083603,0.066426,0.118954,0.000000,0.000000,0.000000,-0.039790,-0.033246,-0.056566,0.000000,-0.000000,-0.000000,0.051488,0.042543,0.073202,0.000000,0.000000,0.000000],[0.070157,0.056789,0.099784,0.000000,-0.000000,-0.000000,-0.041902,-0.034996,-0.059571,0.000000,0.000000,-0.000000,0.009405,0.007989,0.013368,0.000000,-0.000000,-0.000000,0.044647,0.037208,0.063477,0.000000,-0.000000,0.000000],[0.039033,0.025950,0.098304,-0.034260,0.077279,-0.012648,-0.033280,0.009311,-0.084741,0.092849,-0.043959,0.056946,0.077763,-0.046297,0.010374,0.049341,0.035823,0.023805,0.090606,-0.031437,0.071092,-0.011601,-0.030538,0.008536],[-0.078005,0.085532,-0.040352,0.052311,0.071539,-0.042502,0.009513,0.045304,6375001134848223383035838464.000000,-0.051016,31.305399,-0.000000,0.000000,0.000000,-0.000000,-50788192052563151997871587328.000000,-0.000000,-0.404129,3967.464111,-0.000000,-0.000000,-0.000000,-0.000000,0.000345],[-nan,-nan,-nan,-nan,-nan,-nan,-nan,-nan,-nan,-nan,-nan,-nan,-nan,-nan,-nan,-nan,-nan,-nan,-nan,-nan,-nan,-nan,-nan,-nan],[-1.020011,-115381.585938,2598353507486510819309151679835799552.000000,-1457.421509,0.000000,0.005225,0.000000,-154728394328505992410663357513728.000000,-0.000000,0.000000,0.000000,-0.001154,-0.000000,0.000000,-0.002656,-96587972608.000000,55576142761146890844295397376.000000,-15688193644433506304.000000,-0.000000,0.000000,70097059840.000000,0.000587,-105334123266048.000000,-0.000000],[-67733584993330048553451520.000000,-0.000000,-0.000000,0.000000,-574086530551461064508281242779648.000000,0.000000,-0.010310,2140849257255138751982751186944.000000,-4695342759560889600439205494784.000000,-1.881904,-1536873.375000,0.000000,10.119709,-0.000000,0.417248,-60470996238336.000000,-31040749797981974839803038538924032.000000,-81746.460938,-0.000000,0.000000,0.000000,0.000000,-120211234816.000000,26836143828506306644438679552.000000],[-0.000000,-113937989563262561758768682500096.000000,200601649152.000000,0.000000,-0.000000,0.000000,2172083571404046336.000000,-4847891417115300910321223327547392.000000,152006318924622351858694545735680.000000,-1563702177457744162660796071936.000000,-0.000001,851.051147,0.000000,0.000000,-0.000000,-578243953305103687555030712320.000000,0.000000,-32649586569459531776.000000,108511458804121640894464.000000,-0.000000,4429530818778845931799339195170816.000000,0.000000,-7037176.000000,-9146520477630464.000000],[13367715384276056318751161712640.000000,0.001647,0.001770,0.000000,-0.000002,0.000000,-0.000000,-17373738372744347648.000000,0.000000,-0.000000,-0.000000,0.000000,-111748078978895286850551808.000000,-1490814.875000,28397321322496.000000,-1192942562841728872891546124494569472.000000,-271503147554250516678942476524847104.000000,-390.582489,0.000000,13585685862615311450112.000000,-226614272296726036480.000000,2.461061,-0.000000,-1247884203647033134703502705838522368.000000],[-0.000000,218164816.000000,-10682272603744801652736.000000,0.000000,125717792460148451286232259023077376.000000,-0.000000,-3230700090699579211889896828436480.000000,-37935470831635781582884003905536.000000,-760572454572209417157725782292824064.000000,-119108.820312,3.307094,-0.000000,140408442320846848.000000,-0.000000,99171376547151813822168841584640.000000,-8600492935393623750475776.000000,484378852500439040000.000000,-7066469415862042532249163792384.000000,-8420875619253627125760.000000,0.000000,-0.000000,0.000000,0.028067,7769605465453561271812096.000000],[-0.000000,-0.000001,0.000000,0.000000,-0.000000,0.000000,-0.000000,-1659042365323842549384841191751680.000000,-0.000000,-20157715972096.000000,-0.000000,211.230347,2783048484290269085366998794240.000000,0.000000,-0.000021,-5808066133538453323776.000000,0.000000,-27752129449272324552426258432.000000,10097983488.000000,181134740984044330156032.000000,3057719288266752.000000,0.000000,-0.000000,-14983817706986505303642453399618715648.000000],[-25952118197048049664.000000,-31503803745556749902389605753159680.000000,0.000000,-0.000000,1959.067383,-0.000000,-0.000000,0.000000,17609272725871849675599720218624.000000,-0.000000,2568450718235434680320.000000,140219367424.000000,2226.724365,-0.000000,-0.000000,150345612534534012352926058302486347776.000000,-43299817652224.000000,-0.205723,-0.000000,0.000000,-0.000000,-0.000000,-9396096738790220179483629616889856.000000,-153946974930866806148613753194676224.000000],[nan,nan,nan,nan,nan,nan,nan,nan,nan,nan,nan,nan,nan,nan,nan,nan,nan,nan,nan,nan,nan,nan,nan,nan],[8157593600000.000000,0.020242,227218682084851712.000000,0.000000,13.082369,33853135650816.000000,-0.000000,37058854912.000000,-0.001104,-121352637618262543342178361535365120.000000,0.000096,131804.750000,179413280.000000,0.000000,1.072207,-0.099650,-139005605840561036998656131072.000000,-32001227446778498227273465856.000000,-27563.755859,-0.000000,204503.515625,-0.000000,0.000000,-0.000000]]},"output_layer":{"bias":[0.026826,0.045280,-0.080193,0.084043,-0.093663,0.085130],"weights":[[-nan,nan,nan,nan,nan,nan,-nan,nan,nan,nan,nan,nan,nan,nan,nan,nan],[-nan,nan,nan,nan,nan,nan,-nan,nan,nan,nan,nan,nan,nan,nan,nan,nan],[-nan,nan,nan,nan,nan,nan,-nan,nan,nan,nan,nan,nan,nan,nan,nan,nan],[-nan,nan,nan,nan,nan,nan,-nan,nan,nan,nan,nan,nan,nan,nan,nan,nan],[-nan,nan,nan,nan,nan,nan,-nan,nan,nan,nan,nan,nan,nan,nan,nan,nan],[-nan,nan,nan,nan,nan,nan,-nan,nan,nan,nan,nan,nan,nan,nan,nan,nan]]},"prediction_layer":{"bias":[-126191889402277712979361267712.000000,25632234332185562692458661172740096.000000,33281599047244709888.000000,-9516361230255646847287689216.000000,0.000000,-6083527467740430336.000000,0.135352,0.000000,0.000009,-0.000000,70358890301679313354752.000000,-0.000000,-0.004402,0.000000,0.000000,-19011450.000000,-8425198316109266067894232525307904.000000,-384356580880741101985595392.000000,-0.099021,-0.000000,893930870669312.000000,-0.000000,-0.000000,1.576603],"weights":[[-nan,nan,nan,nan,nan,nan,-nan,nan,nan,nan,nan,nan,nan,nan,nan,nan],[-nan,nan,nan,nan,nan,nan,-nan,nan,nan,nan,nan,nan,nan,nan,nan,nan],[-nan,nan,nan,nan,nan,nan,-nan,nan,nan,nan,nan,nan,nan,nan,nan,nan],[-nan,nan,nan,nan,nan,nan,-nan,nan,nan,nan,nan,nan,nan,nan,nan,nan],[-nan,nan,nan,nan,nan,nan,-nan,nan,nan,nan,nan,nan,nan,nan,nan,nan],[-nan,nan,nan,nan,nan,nan,-nan,nan,nan,nan,nan,nan,nan,nan,nan,nan],[-nan,nan,nan,nan,nan,nan,-nan,nan,nan,nan,nan,nan,nan,nan,nan,nan],[-nan,nan,nan,nan,nan,nan,-nan,nan,nan,nan,nan,nan,nan,nan,nan,nan],[-nan,nan,nan,nan,nan,nan,-nan,nan,nan,nan,nan,nan,nan,nan,nan,nan],[-nan,nan,nan,nan,nan,nan,-nan,nan,nan,nan,nan,nan,nan,nan,nan,nan],[-nan,nan,nan,nan,nan,nan,-nan,nan,nan,nan,nan,nan,nan,nan,nan,nan],[-nan,nan,nan,nan,nan,nan,-nan,nan,nan,nan,nan,nan,nan,nan,nan,nan],[-nan,nan,nan,nan,nan,nan,-nan,nan,nan,nan,nan,nan,nan,nan,nan,nan],[-nan,nan,nan,nan,nan,nan,-nan,nan,nan,nan,nan,nan,nan,nan,nan,nan],[-nan,nan,nan,nan,nan,nan,-nan,nan,nan,nan,nan,nan,nan,nan,nan,nan],[-nan,nan,nan,nan,nan,nan,-nan,nan,nan,nan,nan,nan,nan,nan,nan,nan],[-nan,nan,nan,nan,nan,nan,-nan,nan,nan,nan,nan,nan,nan,nan,nan,nan],[-nan,nan,nan,nan,nan,nan,-nan,nan,nan,nan,nan,nan,nan,nan,nan,nan],[-nan,nan,nan,nan,nan,nan,-nan,nan,nan,nan,nan,nan,nan,nan,nan,nan],[-nan,nan,nan,nan,nan,nan,-nan,nan,nan,nan,nan,nan,nan,nan,nan,nan],[-nan,nan,nan,nan,nan,nan,-nan,nan,nan,nan,nan,nan,nan,nan,nan,nan],[-nan,nan,nan,nan,nan,nan,-nan,nan,nan,nan,nan,nan,nan,nan,nan,nan],[-nan,nan,nan,nan,nan,nan,-nan,nan,nan,nan,nan,nan,nan,nan,nan,nan],[-nan,nan,nan,nan,nan,nan,-nan,nan,nan,nan,nan,nan,nan,nan,nan,nan]]}}
--- END NN EXPORT ---


--- BEGIN NN EXPORT ---
{"hidden_layer":{"bias":[-2570031023950911603906211588469686272.000000,6368381440.000000,0.000000,0.000000,0.000000,3686597.000000,3907513608211886903754208837632.000000,0.000000,-16088095744.000000,-12290528997421058178303393792.000000,0.000000,0.000000,-1212842752.000000,32747207814491048303029121930852564992.000000,nan,1.576353],"weights":[[0.034974,0.029315,0.049716,-0.000000,-0.000000,-0.000000,0.023266,0.019606,0.033069,-0.000000,0.000000,-0.000000,0.087523,0.069057,0.124551,0.000000,0.000000,0.000000,-0.030702,-0.025747,-0.043639,-0.000000,0.000000,-0.000000],[0.068993,0.055826,0.098125,0.000000,0.000000,-0.000000,-0.011341,-0.009522,-0.016114,-0.000000,0.000000,0.000000,-0.029823,-0.024973,-0.042386,0.000000,0.000000,0.000000,0.008359,0.007204,0.011887,0.000000,0.000000,-0.000000],[-0.075579,-0.060661,-0.107513,-0.000000,0.000000,-0.000000,0.082721,0.065725,0.117700,0.000000,0.000000,0.000000,-0.039371,-0.032895,-0.055969,0.000000,-0.000000,-0.000000,0.050945,0.042095,0.072430,0.000000,0.000000,0.000000],[0.069417,0.056190,0.098732,0.000000,-0.000000,-0.000000,-0.041460,-0.034627,-0.058943,0.000000,0.000000,-0.000000,0.009306,0.007904,0.013227,0.000000,-0.000000,-0.000000,0.044176,0.036815,0.062808,0.000000,-0.000000,0.000000],[0.038622,0.025677,0.097267,-0.033899,0.076464,-0.012515,-0.032929,0.009213,-0.083848,0.091870,-0.043496,0.056345,0.076943,-0.045809,0.010264,0.048821,0.035445,0.023554,0.089650,-0.031105,0.070342,-0.011479,-0.030216,0.008446],[-0.077183,0.084630,-0.039926,0.051759,0.070785,-0.042054,0.009413,0.044826,6307768212935797885422796800.000000,-0.050492,30.962494,-0.000000,0.000000,0.000000,-1596221778059853824.000000,-0.000000,-0.000000,-0.399867,3925.622070,-0.000000,-0.000000,-0.000000,0.000000,0.000171],[-nan,-nan,-nan,-nan,-nan,-nan,-nan,-nan,-nan,-nan,-nan,-nan,-nan,-nan,-nan,-nan,-nan,-nan,-nan,-nan,-nan,-nan,-nan,-nan],[-1.009253,-7481870336.000000,2568531076378191551466890614401925120.000000,-721.025574,0.000000,0.000000,0.000000,-597996403377127798854746374144.000000,-0.000000,0.000000,0.000000,-0.001141,-0.000000,0.000000,-0.002643,-1529109413888.000000,425098908392163408324067328.000000,-15522677562034618368.000000,-0.000000,0.000000,69357617152.000000,0.000581,-104223219908608.000000,-0.000000],[-67019234829075646167121920.000000,-0.000000,-0.000000,0.000000,-0.000002,0.000000,-0.010201,1528232445025978394503563706368.000000,-4645823646832199871156772143104.000000,1.854997,-380628.968750,0.000000,8.117879,-0.000000,141104551212123040100202423645177380864.000000,-239845720981504.000000,-0.000090,-81824.554688,-0.000000,0.000000,0.000000,0.000000,27.693682,26557668238194725101009633280.000000],[-1890697.000000,-56451294060046068998641566089216.000000,3.121540,0.000000,-0.000000,0.000000,2014752665879183360.000000,-4796764493492814704967889497096192.000000,150405527054134558324782411022336.000000,-1510260402675859865363734855680.000000,-0.000001,838.344604,0.000000,0.000000,-0.000000,-9154334476758021124077480050688.000000,0.000000,-32295805509083070464.000000,107367058110009778896896.000000,-0.006446,1020316796602609712496640.000000,0.000000,-6962960.000000,-38871906061010471070203904.000000],[13226735290895876722913626292224.000000,0.001629,1.793094,0.000000,-0.000000,0.000000,-0.000000,-73832679357659418890378149888.000000,0.000000,-0.000000,-0.000000,0.000000,-110569553393514131016908800.000000,-1475571.250000,6542.036621,-853601212258508431188013966249951232.000000,-14562992855187456.000000,386.576782,0.000000,52509403195977498624.000000,-224220046144825196544.000000,2.435106,-0.000000,-1234118310410179706046624444467642368.000000],[-0.000000,216842096.000000,-10844906593488405004288.000000,0.000000,121970359794345633816310825330147328.000000,-0.000000,-3196630433393396439999329305886720.000000,-37535393756595794662323440844800.000000,-907531505569318108730588959067865088.000000,-117852.664062,3.264928,-0.000000,168331880138014720.000000,-0.000000,5319378337792.000000,-8545025881806988342460416.000000,122968563047135472254976.000000,-3495972289624494454729907109888.000000,-7781062168042029449216.000000,0.000000,-0.000000,0.000000,0.028682,0.000000],[-0.000000,0.000001,0.000000,0.000000,-222798207254528.000000,0.000000,-0.000000,-1641545785036097716597020057141248.000000,-0.000000,19945125576704.000000,-0.000000,53504.679688,2735222774403404547901035118592.000000,0.000000,-0.000000,-1210097042060244572633496027136.000000,0.000000,-22839553128022414333990404096.000000,9960197120.000000,179257766760145873797120.000000,2954562109440.000000,0.000000,-0.000000,-14670810688428751128054288940850479104.000000],[-25678423364615536640.000000,-35995773165067052201804169526378496.000000,0.000000,-0.000000,1938.406494,-0.000000,-0.000000,0.000000,0.000000,-2134605.000000,34.441898,138740580352.000000,787.725830,-0.000000,-0.000000,-109085086395415815557819741064092712960.000000,-179577246711808.000000,3754889933215498240.000000,-2001696718848.000000,0.000000,-0.000000,0.000000,-9599694547351290246394914082390016.000000,-152323411617583872776562452178403328.000000],[nan,nan,nan,nan,nan,nan,nan,nan,nan,nan,nan,nan,nan,nan,nan,nan,nan,nan,nan,nan,nan,nan,nan,nan],[7943365853184.000000,0.079886,208019491076964352.000000,0.000000,3.214237,33512142929920.000000,-0.000000,36668018688.000000,-0.001092,-120073191925340002837422419474382848.000000,0.000088,2240512908066816.000000,177521168.000000,0.000000,1.104615,-0.098599,-138116950915814627162342817792.000000,31519340642583789585909678080.000000,-1704.566284,-0.000000,231956.031250,-0.000000,0.000000,-0.000000]]},"output_layer":{"bias":[0.026826,0.045280,-0.080193,0.084043,-0.093663,0.085130],"weights":[[nan,nan,nan,nan,nan,nan,-nan,nan,nan,nan,nan,nan,nan,nan,nan,nan],[nan,nan,nan,nan,nan,nan,-nan,nan,nan,nan,nan,nan,nan,nan,nan,nan],[nan,nan,nan,nan,nan,nan,-nan,nan,nan,nan,nan,nan,nan,nan,nan,nan],[nan,nan,nan,nan,nan,nan,-nan,nan,nan,nan,nan,nan,nan,nan,nan,nan],[nan,nan,nan,nan,nan,nan,-nan,nan,nan,nan,nan,nan,nan,nan,nan,nan],[nan,nan,nan,nan,nan,nan,-nan,nan,nan,nan,nan,nan,nan,nan,nan,nan]]},"prediction_layer":{"bias":[-2076651293354701552091136.000000,25632234332185562692458661172740096.000000,33281599047244709888.000000,-9787160613849323782421872640.000000,0.000000,-6083245992763719680.000000,0.133368,0.000000,-0.000000,-0.000000,-73776039294063880365685080064.000000,-0.000000,-0.004395,0.000000,-0.000000,-27398522.000000,-0.000025,-384356580880741101985595392.000000,-0.099020,-0.000000,13506084864.000000,-0.000000,-0.000000,1.576603],"weights":[[nan,nan,nan,nan,nan,nan,-nan,nan,nan,nan,nan,nan,nan,nan,nan,nan],[nan,nan,nan,nan,nan,nan,-nan,nan,nan,nan,nan,nan,nan,nan,nan,nan],[nan,nan,nan,nan,nan,nan,-nan,nan,nan,nan,nan,nan,nan,nan,nan,nan],[nan,nan,nan,nan,nan,nan,-nan,nan,nan,nan,nan,nan,nan,nan,nan,nan],[nan,nan,nan,nan,nan,nan,-nan,nan,nan,nan,nan,nan,nan,nan,nan,nan],[nan,nan,nan,nan,nan,nan,-nan,nan,nan,nan,nan,nan,nan,nan,nan,nan],[nan,nan,nan,nan,nan,nan,-nan,nan,nan,nan,nan,nan,nan,nan,nan,nan],[nan,nan,nan,nan,nan,nan,-nan,nan,nan,nan,nan,nan,nan,nan,nan,nan],[nan,nan,nan,nan,nan,nan,-nan,nan,nan,nan,nan,nan,nan,nan,nan,nan],[nan,nan,nan,nan,nan,nan,-nan,nan,nan,nan,nan,nan,nan,nan,nan,nan],[nan,nan,nan,nan,nan,nan,-nan,nan,nan,nan,nan,nan,nan,nan,nan,nan],[nan,nan,nan,nan,nan,nan,-nan,nan,nan,nan,nan,nan,nan,nan,nan,nan],[nan,nan,nan,nan,nan,nan,-nan,nan,nan,nan,nan,nan,nan,nan,nan,nan],[nan,nan,nan,nan,nan,nan,-nan,nan,nan,nan,nan,nan,nan,nan,nan,nan],[nan,nan,nan,nan,nan,nan,-nan,nan,nan,nan,nan,nan,nan,nan,nan,nan],[nan,nan,nan,nan,nan,nan,-nan,nan,nan,nan,nan,nan,nan,nan,nan,nan],[nan,nan,nan,nan,nan,nan,-nan,nan,nan,nan,nan,nan,nan,nan,nan,nan],[nan,nan,nan,nan,nan,nan,-nan,nan,nan,nan,nan,nan,nan,nan,nan,nan],[nan,nan,nan,nan,nan,nan,-nan,nan,nan,nan,nan,nan,nan,nan,nan,nan],[nan,nan,nan,nan,nan,nan,-nan,nan,nan,nan,nan,nan,nan,nan,nan,nan],[nan,nan,nan,nan,nan,nan,-nan,nan,nan,nan,nan,nan,nan,nan,nan,nan],[nan,nan,nan,nan,nan,nan,-nan,nan,nan,nan,nan,nan,nan,nan,nan,nan],[nan,nan,nan,nan,nan,nan,-nan,nan,nan,nan,nan,nan,nan,nan,nan,nan],[nan,nan,nan,nan,nan,nan,-nan,nan,nan,nan,nan,nan,nan,nan,nan,nan]]}}
--- END NN EXPORT ---




--- BEGIN NN EXPORT ---
{"hidden_layer":{"bias":[0.038000,-0.093601,0.072874,-0.011370,0.007316,0.066117,-0.045673,-0.068457,-0.003037,0.092820,-0.053275,0.098341,0.041329,-0.084444,0.057577,-0.064487],"weights":[[0.066570,0.178862,0.137734,-0.023391,-0.046614,-0.056302,0.126238,0.099889,0.067381,0.142618,0.009933,0.076208,0.262909,0.425495,-0.075830,0.215929,0.062887,0.083202,0.103440,0.279827,-0.031449,0.258306,0.095648,-0.024185],[0.145689,0.103579,0.209148,-0.009763,-0.013047,0.020447,0.209746,0.227208,-0.018815,0.250749,0.061336,0.086176,0.424555,0.306000,0.023840,0.223871,0.170896,0.060809,0.219249,0.142309,0.069312,0.350140,0.218590,0.011282],[0.085486,0.295047,0.243096,0.061920,-0.060468,-0.079605,0.196240,0.191872,-0.005421,0.246630,0.067922,-0.010342,0.523254,0.367996,0.097809,0.178396,0.354479,0.018257,0.221610,0.268390,-0.034113,0.364064,0.267833,0.035739],[-0.043899,0.160140,0.099225,-0.076562,-0.038567,0.086721,0.101898,0.212568,0.073783,0.186575,-0.006164,0.023815,0.261905,0.112469,-0.008561,0.050371,0.056103,0.002304,0.085384,0.195768,0.024212,0.061012,0.081713,0.013754],[-0.110363,-0.052994,-0.102986,-0.030331,0.046233,0.089246,-0.075254,-0.057579,0.011012,-0.099044,0.079468,0.024539,-0.155908,-0.196130,-0.031734,-0.148121,0.031047,0.016358,-0.014598,0.032045,-0.037334,-0.185315,0.092722,0.005544],[0.166991,0.105293,0.143236,0.043561,-0.037611,0.083997,0.067353,0.175221,-0.071229,0.376125,0.109508,0.080757,0.334394,0.394612,0.094282,0.140435,0.215554,0.091771,0.230200,0.323140,-0.076329,0.327731,0.222929,-0.045433],[0.065872,-0.143333,-0.065953,0.076884,0.083221,-0.074958,0.042320,-0.073812,0.055741,-0.164531,-0.043058,-0.096431,-0.033765,-0.099675,-0.058045,-0.126438,-0.102884,-0.069757,-0.032363,-0.063748,-0.054167,-0.060106,0.072508,0.006097],[0.088521,0.127258,0.006857,0.003635,-0.090107,-0.027035,0.002701,-0.047734,0.045617,0.164760,0.088323,-0.045550,0.107226,0.016012,-0.041811,0.107505,0.151992,-0.065816,0.050665,0.177467,-0.068924,0.166099,-0.006198,0.010584],[-0.010456,-0.269030,-0.048713,-0.087377,-0.076469,0.047201,-0.139233,-0.102154,0.094745,-0.272584,-0.093867,0.089578,-0.288734,-0.407065,0.007337,-0.208911,-0.268936,0.017186,-0.028990,-0.241354,-0.065764,-0.248838,-0.102013,0.008690],[-0.087127,-0.272583,-0.187054,0.009781,-0.077414,-0.084134,-0.157118,-0.308813,-0.052177,-0.276267,-0.068420,0.081293,-0.404859,-0.433231,0.008223,-0.224271,-0.127691,-0.097279,-0.161314,-0.298651,0.012425,-0.314712,-0.140262,-0.000647],[0.066211,-0.079148,-0.151938,0.002958,0.006009,-0.088934,-0.092654,0.076686,-0.035439,-0.125209,0.018837,0.074763,-0.158875,-0.209996,-0.020607,-0.057326,0.003051,-0.035778,-0.085638,-0.039623,0.000933,-0.086845,-0.000537,0.017861],[0.010684,0.204209,0.058707,-0.016097,-0.048612,-0.061130,0.053107,0.290270,0.003754,0.365911,0.060928,0.004961,0.442626,0.432042,0.098134,0.098361,0.151227,-0.039343,0.139332,0.143732,0.045985,0.306795,0.089807,-0.057137],[0.170464,0.191081,0.246425,-0.050522,-0.032307,-0.013147,0.221726,0.268156,-0.071844,0.357625,0.076450,0.022943,0.484904,0.545670,0.077677,0.260060,0.282199,0.026184,0.120680,0.352382,-0.079085,0.321871,0.220187,0.074667],[-0.157201,-0.182209,-0.250380,-0.057430,0.057401,0.089994,-0.257813,-0.175218,-0.084357,-0.411891,-0.043061,-0.021489,-0.485904,-0.467008,0.030137,-0.207319,-0.358212,0.025385,-0.246213,-0.430263,0.076602,-0.437944,-0.091296,0.018953],[-0.059893,0.026811,-0.009660,0.000693,0.041886,-0.042064,-0.077682,-0.111353,-0.009789,-0.143065,0.024540,0.008020,0.013063,-0.186407,-0.069563,0.056915,-0.034340,0.037936,0.043624,-0.158289,0.060801,-0.105969,-0.001120,-0.089543],[0.022272,0.081051,-0.007803,0.011762,0.019121,0.058141,0.107317,0.025965,-0.054414,0.010399,0.067729,-0.064135,0.130396,0.044524,0.000909,0.002811,0.172955,-0.085966,0.117594,0.132299,0.093207,0.021037,0.156083,0.020608]]},"output_layer":{"bias":[-0.091478,0.095368,-0.018315,-0.006058,-0.005166,0.076949],"weights":[[-0.351279,-0.339628,-0.451591,-0.221590,0.170857,-0.389632,0.156726,-0.183901,0.292907,0.395146,0.179245,-0.318472,-0.538340,0.553092,0.160699,-0.116656],[0.387970,0.362208,0.399619,0.110475,-0.106992,0.404064,-0.153202,0.047852,-0.414042,-0.443593,-0.150027,0.277086,0.443862,-0.469619,-0.004232,0.146494],[0.294585,0.282670,0.357306,0.078824,-0.080681,0.261969,-0.036057,0.132145,-0.203125,-0.183616,-0.192055,0.251257,0.337881,-0.320293,-0.110453,0.049224],[-0.242747,-0.253515,-0.365593,-0.091111,0.081249,-0.268306,0.021954,-0.060653,0.195392,0.310461,0.143460,-0.332712,-0.356747,0.399105,-0.021924,-0.118071],[-0.222868,-0.306720,-0.314779,-0.094205,0.076807,-0.256575,0.150539,-0.088653,0.216431,0.354762,0.205919,-0.362892,-0.409273,0.372099,0.053257,0.006629],[-0.101605,-0.197402,-0.170729,-0.036586,0.021634,-0.188064,0.024068,0.032946,0.100455,0.044389,0.155166,-0.055600,-0.146547,0.225453,0.049329,-0.062399]]},"prediction_layer":{"bias":[0.004540,0.023131,0.073261,-0.089018,-0.001231,0.028218,-0.054425,-0.014179,0.097162,-0.033455,-0.053743,0.025177,-0.024836,-0.070620,0.095073,-0.007845,-0.041275,-0.003254,0.021746,-0.029144,-0.071562,-0.008277,0.091155,0.095217],"weights":[[-0.204024,-0.177764,-0.166218,-0.169936,0.147548,-0.181279,0.085615,-0.072328,0.122199,0.108290,0.189217,-0.210524,-0.279343,0.261601,0.085608,-0.055770],[0.052909,0.154073,0.113585,0.009924,-0.011685,0.209694,0.028574,0.074277,-0.090589,-0.122440,-0.119200,0.195354,0.208964,-0.257043,-0.051934,-0.027204],[0.332950,0.323593,0.329947,0.141103,-0.030472,0.402110,-0.080694,0.143028,-0.236776,-0.367579,-0.228179,0.294670,0.351347,-0.286672,0.022714,0.014878],[-0.190730,-0.294421,-0.366463,-0.068192,0.202427,-0.256155,0.119301,-0.084954,0.236065,0.314170,0.132867,-0.259140,-0.344164,0.324829,0.138213,-0.114209],[0.246191,0.400026,0.497457,0.268750,-0.128881,0.451871,-0.150743,0.033530,-0.413336,-0.450890,-0.099559,0.279215,0.499152,-0.435477,-0.139267,0.184545],[0.191866,0.151637,0.360573,0.202455,-0.146754,0.233672,-0.074719,0.106686,-0.253197,-0.184165,-0.027570,0.250443,0.308921,-0.378455,-0.143880,0.062557],[0.198706,0.113681,0.149924,0.175068,-0.135002,0.136806,-0.036033,-0.039267,-0.192891,-0.233377,-0.062883,0.132576,0.175164,-0.207935,-0.005307,-0.019180],[-0.196752,-0.183994,-0.095880,-0.037495,0.091216,-0.191172,0.085505,-0.081435,0.109349,0.125321,0.179682,-0.263280,-0.162727,0.257399,0.027430,-0.069264],[0.319405,0.259350,0.486095,0.159692,-0.049328,0.303952,-0.172752,0.044161,-0.370556,-0.342212,-0.244840,0.439895,0.494801,-0.539627,-0.035181,0.024525],[-0.195433,-0.224372,-0.280440,-0.216218,0.041643,-0.300992,0.034848,-0.075573,0.254110,0.164479,0.079893,-0.275608,-0.278692,0.348449,0.042850,-0.034707],[0.068456,0.030852,0.139357,0.078275,0.063315,0.008104,-0.105840,0.067872,-0.095559,-0.039370,-0.035330,0.079871,-0.020030,-0.138982,-0.037002,-0.032578],[0.378854,0.384151,0.392071,0.219272,-0.105055,0.364383,-0.024487,0.016897,-0.265120,-0.401573,-0.074295,0.365216,0.470351,-0.475963,-0.033171,0.120296],[-0.108116,0.030923,-0.057130,0.007087,-0.069847,0.030950,0.055796,-0.034938,0.076692,0.067599,0.089928,-0.103137,-0.051409,0.062519,-0.033286,0.046813],[0.076703,0.165922,0.106941,0.087355,-0.012573,0.102662,0.011392,0.085480,-0.027329,-0.073393,-0.019562,0.145872,0.129472,-0.100935,-0.035260,-0.077492],[0.289485,0.423437,0.457936,0.109898,-0.157678,0.450389,-0.097333,0.066892,-0.270886,-0.434464,-0.122114,0.429781,0.522426,-0.523636,-0.076400,0.154416],[-0.264461,-0.309528,-0.380593,-0.203549,0.119855,-0.300194,0.125340,-0.137370,0.190736,0.356156,0.076420,-0.244821,-0.325418,0.335478,-0.022644,-0.052777],[-0.289062,-0.242409,-0.287473,-0.177598,0.069019,-0.387120,0.112554,-0.177741,0.361487,0.382749,0.085115,-0.240455,-0.330798,0.357586,0.041124,-0.145024],[0.297267,0.230288,0.471883,0.211917,-0.128327,0.411089,-0.079370,0.135725,-0.282963,-0.358573,-0.190302,0.317086,0.477796,-0.464670,-0.141596,0.080960],[0.331186,0.301800,0.443313,0.222252,-0.037154,0.366347,-0.134196,0.037801,-0.388066,-0.404642,-0.176875,0.402520,0.350466,-0.364239,-0.066012,0.170319],[-0.213766,-0.318152,-0.422611,-0.106082,0.110060,-0.368569,0.176029,-0.128083,0.268277,0.240679,0.180079,-0.300472,-0.433504,0.306608,0.154979,-0.001104],[-0.086913,-0.126380,-0.165652,-0.141044,0.015617,-0.173969,0.017628,-0.128218,0.175359,0.181277,0.076142,-0.227723,-0.239908,0.326606,-0.015756,-0.044819],[-0.001041,-0.102912,-0.134701,-0.084614,-0.013234,-0.099123,0.111359,0.040660,0.134511,0.031128,0.013740,-0.094373,-0.125764,0.158881,0.109429,0.033909],[-0.222237,-0.159173,-0.214664,-0.144693,0.044936,-0.256372,0.075632,-0.062427,0.237980,0.242366,0.077220,-0.146615,-0.130336,0.220140,0.079883,-0.106991],[0.343622,0.283233,0.368584,0.193454,-0.215034,0.349929,-0.127182,0.153162,-0.184951,-0.266126,-0.136668,0.213295,0.366972,-0.285028,-0.109568,0.130005]]}}
--- END NN EXPORT ---
